digraph Tree {
node [shape=box] ;
0 [label="sex=male <= 0.5\ngini = 0.451\nsamples = 984\nvalue = [646, 338]"] ;
1 [label="pclass=3rd <= 0.5\ngini = 0.437\nsamples = 347\nvalue = [112, 235]"] ;
0 -> 1 [labeldistance=2.5, labelangle=45, headlabel="True"] ;
2 [label="pclass=2nd <= 0.5\ngini = 0.161\nsamples = 193\nvalue = [17, 176]"] ;
1 -> 2 ;
3 [label="age <= 62.5\ngini = 0.102\nsamples = 111\nvalue = [6, 105]"] ;
2 -> 3 ;
4 [label="age <= 36.5\ngini = 0.089\nsamples = 107\nvalue = [5, 102]"] ;
3 -> 4 ;
5 [label="age <= 24.5\ngini = 0.129\nsamples = 72\nvalue = [5, 67]"] ;
4 -> 5 ;
6 [label="gini = 0.0\nsamples = 21\nvalue = [0, 21]"] ;
5 -> 6 ;
7 [label="age <= 25.5\ngini = 0.177\nsamples = 51\nvalue = [5, 46]"] ;
5 -> 7 ;
8 [label="gini = 0.0\nsamples = 1\nvalue = [1, 0]"] ;
7 -> 8 ;
9 [label="age <= 35.5\ngini = 0.147\nsamples = 50\nvalue = [4, 46]"] ;
7 -> 9 ;
10 [label="age <= 31.097\ngini = 0.122\nsamples = 46\nvalue = [3, 43]"] ;
9 -> 10 ;
11 [label="gini = 0.0\nsamples = 8\nvalue = [0, 8]"] ;
10 -> 11 ;
12 [label="age <= 32.097\ngini = 0.145\nsamples = 38\nvalue = [3, 35]"] ;
10 -> 12 ;
13 [label="gini = 0.161\nsamples = 34\nvalue = [3, 31]"] ;
12 -> 13 ;
14 [label="gini = 0.0\nsamples = 4\nvalue = [0, 4]"] ;
12 -> 14 ;
15 [label="gini = 0.375\nsamples = 4\nvalue = [1, 3]"] ;
9 -> 15 ;
16 [label="gini = 0.0\nsamples = 35\nvalue = [0, 35]"] ;
4 -> 16 ;
17 [label="age <= 63.5\ngini = 0.375\nsamples = 4\nvalue = [1, 3]"] ;
3 -> 17 ;
18 [label="gini = 0.5\nsamples = 2\nvalue = [1, 1]"] ;
17 -> 18 ;
19 [label="gini = 0.0\nsamples = 2\nvalue = [0, 2]"] ;
17 -> 19 ;
20 [label="age <= 53.5\ngini = 0.232\nsamples = 82\nvalue = [11, 71]"] ;
2 -> 20 ;
21 [label="age <= 17.5\ngini = 0.216\nsamples = 81\nvalue = [10, 71]"] ;
20 -> 21 ;
22 [label="gini = 0.0\nsamples = 12\nvalue = [0, 12]"] ;
21 -> 22 ;
23 [label="age <= 44.5\ngini = 0.248\nsamples = 69\nvalue = [10, 59]"] ;
21 -> 23 ;
24 [label="age <= 43.0\ngini = 0.271\nsamples = 62\nvalue = [10, 52]"] ;
23 -> 24 ;
25 [label="age <= 31.597\ngini = 0.252\nsamples = 61\nvalue = [9, 52]"] ;
24 -> 25 ;
26 [label="age <= 22.5\ngini = 0.292\nsamples = 45\nvalue = [8, 37]"] ;
25 -> 26 ;
27 [label="age <= 21.0\ngini = 0.375\nsamples = 12\nvalue = [3, 9]"] ;
26 -> 27 ;
28 [label="age <= 18.5\ngini = 0.198\nsamples = 9\nvalue = [1, 8]"] ;
27 -> 28 ;
29 [label="gini = 0.375\nsamples = 4\nvalue = [1, 3]"] ;
28 -> 29 ;
30 [label="gini = 0.0\nsamples = 5\nvalue = [0, 5]"] ;
28 -> 30 ;
31 [label="gini = 0.444\nsamples = 3\nvalue = [2, 1]"] ;
27 -> 31 ;
32 [label="age <= 25.5\ngini = 0.257\nsamples = 33\nvalue = [5, 28]"] ;
26 -> 32 ;
33 [label="gini = 0.0\nsamples = 6\nvalue = [0, 6]"] ;
32 -> 33 ;
34 [label="age <= 26.5\ngini = 0.302\nsamples = 27\nvalue = [5, 22]"] ;
32 -> 34 ;
35 [label="gini = 0.5\nsamples = 2\nvalue = [1, 1]"] ;
34 -> 35 ;
36 [label="age <= 29.5\ngini = 0.269\nsamples = 25\nvalue = [4, 21]"] ;
34 -> 36 ;
37 [label="gini = 0.0\nsamples = 6\nvalue = [0, 6]"] ;
36 -> 37 ;
38 [label="age <= 30.597\ngini = 0.332\nsamples = 19\nvalue = [4, 15]"] ;
36 -> 38 ;
39 [label="gini = 0.48\nsamples = 5\nvalue = [2, 3]"] ;
38 -> 39 ;
40 [label="gini = 0.245\nsamples = 14\nvalue = [2, 12]"] ;
38 -> 40 ;
41 [label="age <= 37.0\ngini = 0.117\nsamples = 16\nvalue = [1, 15]"] ;
25 -> 41 ;
42 [label="gini = 0.0\nsamples = 11\nvalue = [0, 11]"] ;
41 -> 42 ;
43 [label="age <= 39.0\ngini = 0.32\nsamples = 5\nvalue = [1, 4]"] ;
41 -> 43 ;
44 [label="gini = 0.0\nsamples = 1\nvalue = [1, 0]"] ;
43 -> 44 ;
45 [label="gini = 0.0\nsamples = 4\nvalue = [0, 4]"] ;
43 -> 45 ;
46 [label="gini = 0.0\nsamples = 1\nvalue = [1, 0]"] ;
24 -> 46 ;
47 [label="gini = 0.0\nsamples = 7\nvalue = [0, 7]"] ;
23 -> 47 ;
48 [label="gini = 0.0\nsamples = 1\nvalue = [1, 0]"] ;
20 -> 48 ;
49 [label="age <= 30.597\ngini = 0.473\nsamples = 154\nvalue = [95, 59]"] ;
1 -> 49 ;
50 [label="age <= 13.0\ngini = 0.482\nsamples = 32\nvalue = [13, 19]"] ;
49 -> 50 ;
51 [label="age <= 5.5\ngini = 0.444\nsamples = 6\nvalue = [4, 2]"] ;
50 -> 51 ;
52 [label="gini = 0.0\nsamples = 2\nvalue = [0, 2]"] ;
51 -> 52 ;
53 [label="gini = 0.0\nsamples = 4\nvalue = [4, 0]"] ;
51 -> 53 ;
54 [label="age <= 17.5\ngini = 0.453\nsamples = 26\nvalue = [9, 17]"] ;
50 -> 54 ;
55 [label="age <= 16.5\ngini = 0.245\nsamples = 7\nvalue = [1, 6]"] ;
54 -> 55 ;
56 [label="age <= 15.5\ngini = 0.32\nsamples = 5\nvalue = [1, 4]"] ;
55 -> 56 ;
57 [label="gini = 0.0\nsamples = 1\nvalue = [0, 1]"] ;
56 -> 57 ;
58 [label="gini = 0.375\nsamples = 4\nvalue = [1, 3]"] ;
56 -> 58 ;
59 [label="gini = 0.0\nsamples = 2\nvalue = [0, 2]"] ;
55 -> 59 ;
60 [label="age <= 23.5\ngini = 0.488\nsamples = 19\nvalue = [8, 11]"] ;
54 -> 60 ;
61 [label="age <= 22.5\ngini = 0.473\nsamples = 13\nvalue = [5, 8]"] ;
60 -> 61 ;
62 [label="age <= 20.0\ngini = 0.486\nsamples = 12\nvalue = [5, 7]"] ;
61 -> 62 ;
63 [label="age <= 18.5\ngini = 0.469\nsamples = 8\nvalue = [3, 5]"] ;
62 -> 63 ;
64 [label="gini = 0.49\nsamples = 7\nvalue = [3, 4]"] ;
63 -> 64 ;
65 [label="gini = 0.0\nsamples = 1\nvalue = [0, 1]"] ;
63 -> 65 ;
66 [label="age <= 21.5\ngini = 0.5\nsamples = 4\nvalue = [2, 2]"] ;
62 -> 66 ;
67 [label="gini = 0.0\nsamples = 1\nvalue = [1, 0]"] ;
66 -> 67 ;
68 [label="gini = 0.444\nsamples = 3\nvalue = [1, 2]"] ;
66 -> 68 ;
69 [label="gini = 0.0\nsamples = 1\nvalue = [0, 1]"] ;
61 -> 69 ;
70 [label="age <= 28.5\ngini = 0.5\nsamples = 6\nvalue = [3, 3]"] ;
60 -> 70 ;
71 [label="age <= 25.5\ngini = 0.444\nsamples = 3\nvalue = [2, 1]"] ;
70 -> 71 ;
72 [label="gini = 0.5\nsamples = 2\nvalue = [1, 1]"] ;
71 -> 72 ;
73 [label="gini = 0.0\nsamples = 1\nvalue = [1, 0]"] ;
71 -> 73 ;
74 [label="gini = 0.444\nsamples = 3\nvalue = [1, 2]"] ;
70 -> 74 ;
75 [label="age <= 32.5\ngini = 0.441\nsamples = 122\nvalue = [82, 40]"] ;
49 -> 75 ;
76 [label="age <= 31.597\ngini = 0.43\nsamples = 115\nvalue = [79, 36]"] ;
75 -> 76 ;
77 [label="gini = 0.432\nsamples = 114\nvalue = [78, 36]"] ;
76 -> 77 ;
78 [label="gini = 0.0\nsamples = 1\nvalue = [1, 0]"] ;
76 -> 78 ;
79 [label="age <= 37.0\ngini = 0.49\nsamples = 7\nvalue = [3, 4]"] ;
75 -> 79 ;
80 [label="gini = 0.0\nsamples = 3\nvalue = [0, 3]"] ;
79 -> 80 ;
81 [label="age <= 44.0\ngini = 0.375\nsamples = 4\nvalue = [3, 1]"] ;
79 -> 81 ;
82 [label="gini = 0.0\nsamples = 2\nvalue = [2, 0]"] ;
81 -> 82 ;
83 [label="gini = 0.5\nsamples = 2\nvalue = [1, 1]"] ;
81 -> 83 ;
84 [label="age <= 4.5\ngini = 0.271\nsamples = 637\nvalue = [534, 103]"] ;
0 -> 84 [labeldistance=2.5, labelangle=-45, headlabel="False"] ;
85 [label="gini = 0.0\nsamples = 12\nvalue = [0, 12]"] ;
84 -> 85 ;
86 [label="pclass=1st <= 0.5\ngini = 0.249\nsamples = 625\nvalue = [534, 91]"] ;
84 -> 86 ;
87 [label="age <= 10.0\ngini = 0.186\nsamples = 491\nvalue = [440, 51]"] ;
86 -> 87 ;
88 [label="age <= 7.5\ngini = 0.444\nsamples = 6\nvalue = [4, 2]"] ;
87 -> 88 ;
89 [label="gini = 0.0\nsamples = 3\nvalue = [3, 0]"] ;
88 -> 89 ;
90 [label="gini = 0.444\nsamples = 3\nvalue = [1, 2]"] ;
88 -> 90 ;
91 [label="age <= 41.5\ngini = 0.182\nsamples = 485\nvalue = [436, 49]"] ;
87 -> 91 ;
92 [label="age <= 18.5\ngini = 0.189\nsamples = 465\nvalue = [416, 49]"] ;
91 -> 92 ;
93 [label="gini = 0.0\nsamples = 16\nvalue = [16, 0]"] ;
92 -> 93 ;
94 [label="age <= 24.5\ngini = 0.194\nsamples = 449\nvalue = [400, 49]"] ;
92 -> 94 ;
95 [label="age <= 19.5\ngini = 0.26\nsamples = 52\nvalue = [44, 8]"] ;
94 -> 95 ;
96 [label="pclass=2nd <= 0.5\ngini = 0.346\nsamples = 9\nvalue = [7, 2]"] ;
95 -> 96 ;
97 [label="gini = 0.408\nsamples = 7\nvalue = [5, 2]"] ;
96 -> 97 ;
98 [label="gini = 0.0\nsamples = 2\nvalue = [2, 0]"] ;
96 -> 98 ;
99 [label="age <= 23.5\ngini = 0.24\nsamples = 43\nvalue = [37, 6]"] ;
95 -> 99 ;
100 [label="pclass=3rd <= 0.5\ngini = 0.208\nsamples = 34\nvalue = [30, 4]"] ;
99 -> 100 ;
101 [label="age <= 21.5\ngini = 0.142\nsamples = 13\nvalue = [12, 1]"] ;
100 -> 101 ;
102 [label="gini = 0.0\nsamples = 6\nvalue = [6, 0]"] ;
101 -> 102 ;
103 [label="age <= 22.5\ngini = 0.245\nsamples = 7\nvalue = [6, 1]"] ;
101 -> 103 ;
104 [label="gini = 0.444\nsamples = 3\nvalue = [2, 1]"] ;
103 -> 104 ;
105 [label="gini = 0.0\nsamples = 4\nvalue = [4, 0]"] ;
103 -> 105 ;
106 [label="age <= 21.5\ngini = 0.245\nsamples = 21\nvalue = [18, 3]"] ;
100 -> 106 ;
107 [label="age <= 20.5\ngini = 0.32\nsamples = 10\nvalue = [8, 2]"] ;
106 -> 107 ;
108 [label="gini = 0.219\nsamples = 8\nvalue = [7, 1]"] ;
107 -> 108 ;
109 [label="gini = 0.5\nsamples = 2\nvalue = [1, 1]"] ;
107 -> 109 ;
110 [label="age <= 22.5\ngini = 0.165\nsamples = 11\nvalue = [10, 1]"] ;
106 -> 110 ;
111 [label="gini = 0.0\nsamples = 6\nvalue = [6, 0]"] ;
110 -> 111 ;
112 [label="gini = 0.32\nsamples = 5\nvalue = [4, 1]"] ;
110 -> 112 ;
113 [label="pclass=3rd <= 0.5\ngini = 0.346\nsamples = 9\nvalue = [7, 2]"] ;
99 -> 113 ;
114 [label="gini = 0.444\nsamples = 3\nvalue = [2, 1]"] ;
113 -> 114 ;
115 [label="gini = 0.278\nsamples = 6\nvalue = [5, 1]"] ;
113 -> 115 ;
116 [label="age <= 29.5\ngini = 0.185\nsamples = 397\nvalue = [356, 41]"] ;
94 -> 116 ;
117 [label="pclass=3rd <= 0.5\ngini = 0.053\nsamples = 37\nvalue = [36, 1]"] ;
116 -> 117 ;
118 [label="age <= 26.5\ngini = 0.1\nsamples = 19\nvalue = [18, 1]"] ;
117 -> 118 ;
119 [label="age <= 25.5\ngini = 0.219\nsamples = 8\nvalue = [7, 1]"] ;
118 -> 119 ;
120 [label="gini = 0.0\nsamples = 4\nvalue = [4, 0]"] ;
119 -> 120 ;
121 [label="gini = 0.375\nsamples = 4\nvalue = [3, 1]"] ;
119 -> 121 ;
122 [label="gini = 0.0\nsamples = 11\nvalue = [11, 0]"] ;
118 -> 122 ;
123 [label="gini = 0.0\nsamples = 18\nvalue = [18, 0]"] ;
117 -> 123 ;
124 [label="age <= 40.5\ngini = 0.198\nsamples = 360\nvalue = [320, 40]"] ;
116 -> 124 ;
125 [label="age <= 36.5\ngini = 0.195\nsamples = 356\nvalue = [317, 39]"] ;
124 -> 125 ;
126 [label="age <= 35.5\ngini = 0.198\nsamples = 350\nvalue = [311, 39]"] ;
125 -> 126 ;
127 [label="age <= 34.5\ngini = 0.196\nsamples = 346\nvalue = [308, 38]"] ;
126 -> 127 ;
128 [label="age <= 30.5\ngini = 0.198\nsamples = 341\nvalue = [303, 38]"] ;
127 -> 128 ;
129 [label="pclass=2nd <= 0.5\ngini = 0.245\nsamples = 14\nvalue = [12, 2]"] ;
128 -> 129 ;
130 [label="gini = 0.375\nsamples = 4\nvalue = [3, 1]"] ;
129 -> 130 ;
131 [label="gini = 0.18\nsamples = 10\nvalue = [9, 1]"] ;
129 -> 131 ;
132 [label="age <= 31.097\ngini = 0.196\nsamples = 327\nvalue = [291, 36]"] ;
128 -> 132 ;
133 [label="gini = 0.0\nsamples = 3\nvalue = [3, 0]"] ;
132 -> 133 ;
134 [label="age <= 32.5\ngini = 0.198\nsamples = 324\nvalue = [288, 36]"] ;
132 -> 134 ;
135 [label="age <= 31.597\ngini = 0.199\nsamples = 312\nvalue = [277, 35]"] ;
134 -> 135 ;
136 [label="pclass=2nd <= 0.5\ngini = 0.198\nsamples = 306\nvalue = [272, 34]"] ;
135 -> 136 ;
137 [label="gini = 0.203\nsamples = 271\nvalue = [240, 31]"] ;
136 -> 137 ;
138 [label="gini = 0.157\nsamples = 35\nvalue = [32, 3]"] ;
136 -> 138 ;
139 [label="pclass=2nd <= 0.5\ngini = 0.278\nsamples = 6\nvalue = [5, 1]"] ;
135 -> 139 ;
140 [label="gini = 0.0\nsamples = 3\nvalue = [3, 0]"] ;
139 -> 140 ;
141 [label="gini = 0.444\nsamples = 3\nvalue = [2, 1]"] ;
139 -> 141 ;
142 [label="pclass=3rd <= 0.5\ngini = 0.153\nsamples = 12\nvalue = [11, 1]"] ;
134 -> 142 ;
143 [label="age <= 33.5\ngini = 0.219\nsamples = 8\nvalue = [7, 1]"] ;
142 -> 143 ;
144 [label="gini = 0.0\nsamples = 1\nvalue = [1, 0]"] ;
143 -> 144 ;
145 [label="gini = 0.245\nsamples = 7\nvalue = [6, 1]"] ;
143 -> 145 ;
146 [label="gini = 0.0\nsamples = 4\nvalue = [4, 0]"] ;
142 -> 146 ;
147 [label="gini = 0.0\nsamples = 5\nvalue = [5, 0]"] ;
127 -> 147 ;
148 [label="pclass=2nd <= 0.5\ngini = 0.375\nsamples = 4\nvalue = [3, 1]"] ;
126 -> 148 ;
149 [label="gini = 0.5\nsamples = 2\nvalue = [1, 1]"] ;
148 -> 149 ;
150 [label="gini = 0.0\nsamples = 2\nvalue = [2, 0]"] ;
148 -> 150 ;
151 [label="gini = 0.0\nsamples = 6\nvalue = [6, 0]"] ;
125 -> 151 ;
152 [label="pclass=3rd <= 0.5\ngini = 0.375\nsamples = 4\nvalue = [3, 1]"] ;
124 -> 152 ;
153 [label="gini = 0.5\nsamples = 2\nvalue = [1, 1]"] ;
152 -> 153 ;
154 [label="gini = 0.0\nsamples = 2\nvalue = [2, 0]"] ;
152 -> 154 ;
155 [label="gini = 0.0\nsamples = 20\nvalue = [20, 0]"] ;
91 -> 155 ;
156 [label="age <= 56.5\ngini = 0.419\nsamples = 134\nvalue = [94, 40]"] ;
86 -> 156 ;
157 [label="age <= 15.5\ngini = 0.448\nsamples = 118\nvalue = [78, 40]"] ;
156 -> 157 ;
158 [label="gini = 0.0\nsamples = 3\nvalue = [0, 3]"] ;
157 -> 158 ;
159 [label="age <= 38.5\ngini = 0.436\nsamples = 115\nvalue = [78, 37]"] ;
157 -> 159 ;
160 [label="age <= 34.0\ngini = 0.459\nsamples = 73\nvalue = [47, 26]"] ;
159 -> 160 ;
161 [label="age <= 20.0\ngini = 0.437\nsamples = 65\nvalue = [44, 21]"] ;
160 -> 161 ;
162 [label="gini = 0.0\nsamples = 2\nvalue = [2, 0]"] ;
161 -> 162 ;
163 [label="age <= 28.5\ngini = 0.444\nsamples = 63\nvalue = [42, 21]"] ;
161 -> 163 ;
164 [label="age <= 22.5\ngini = 0.497\nsamples = 13\nvalue = [7, 6]"] ;
163 -> 164 ;
165 [label="age <= 21.5\ngini = 0.444\nsamples = 3\nvalue = [2, 1]"] ;
164 -> 165 ;
166 [label="gini = 0.5\nsamples = 2\nvalue = [1, 1]"] ;
165 -> 166 ;
167 [label="gini = 0.0\nsamples = 1\nvalue = [1, 0]"] ;
165 -> 167 ;
168 [label="age <= 23.5\ngini = 0.5\nsamples = 10\nvalue = [5, 5]"] ;
164 -> 168 ;
169 [label="gini = 0.0\nsamples = 1\nvalue = [0, 1]"] ;
168 -> 169 ;
170 [label="age <= 25.0\ngini = 0.494\nsamples = 9\nvalue = [5, 4]"] ;
168 -> 170 ;
171 [label="gini = 0.0\nsamples = 1\nvalue = [1, 0]"] ;
170 -> 171 ;
172 [label="age <= 26.5\ngini = 0.5\nsamples = 8\nvalue = [4, 4]"] ;
170 -> 172 ;
173 [label="gini = 0.0\nsamples = 1\nvalue = [0, 1]"] ;
172 -> 173 ;
174 [label="age <= 27.5\ngini = 0.49\nsamples = 7\nvalue = [4, 3]"] ;
172 -> 174 ;
175 [label="gini = 0.444\nsamples = 3\nvalue = [2, 1]"] ;
174 -> 175 ;
176 [label="gini = 0.5\nsamples = 4\nvalue = [2, 2]"] ;
174 -> 176 ;
177 [label="age <= 30.5\ngini = 0.42\nsamples = 50\nvalue = [35, 15]"] ;
163 -> 177 ;
178 [label="gini = 0.0\nsamples = 4\nvalue = [4, 0]"] ;
177 -> 178 ;
179 [label="age <= 31.097\ngini = 0.44\nsamples = 46\nvalue = [31, 15]"] ;
177 -> 179 ;
180 [label="gini = 0.5\nsamples = 4\nvalue = [2, 2]"] ;
179 -> 180 ;
181 [label="age <= 32.5\ngini = 0.427\nsamples = 42\nvalue = [29, 13]"] ;
179 -> 181 ;
182 [label="age <= 31.597\ngini = 0.433\nsamples = 41\nvalue = [28, 13]"] ;
181 -> 182 ;
183 [label="gini = 0.426\nsamples = 39\nvalue = [27, 12]"] ;
182 -> 183 ;
184 [label="gini = 0.5\nsamples = 2\nvalue = [1, 1]"] ;
182 -> 184 ;
185 [label="gini = 0.0\nsamples = 1\nvalue = [1, 0]"] ;
181 -> 185 ;
186 [label="age <= 36.5\ngini = 0.469\nsamples = 8\nvalue = [3, 5]"] ;
160 -> 186 ;
187 [label="age <= 35.5\ngini = 0.32\nsamples = 5\nvalue = [1, 4]"] ;
186 -> 187 ;
188 [label="gini = 0.0\nsamples = 1\nvalue = [0, 1]"] ;
187 -> 188 ;
189 [label="gini = 0.375\nsamples = 4\nvalue = [1, 3]"] ;
187 -> 189 ;
190 [label="age <= 37.5\ngini = 0.444\nsamples = 3\nvalue = [2, 1]"] ;
186 -> 190 ;
191 [label="gini = 0.0\nsamples = 1\nvalue = [1, 0]"] ;
190 -> 191 ;
192 [label="gini = 0.5\nsamples = 2\nvalue = [1, 1]"] ;
190 -> 192 ;
193 [label="age <= 47.5\ngini = 0.387\nsamples = 42\nvalue = [31, 11]"] ;
159 -> 193 ;
194 [label="age <= 39.5\ngini = 0.236\nsamples = 22\nvalue = [19, 3]"] ;
193 -> 194 ;
195 [label="gini = 0.375\nsamples = 4\nvalue = [3, 1]"] ;
194 -> 195 ;
196 [label="age <= 46.5\ngini = 0.198\nsamples = 18\nvalue = [16, 2]"] ;
194 -> 196 ;
197 [label="age <= 43.5\ngini = 0.133\nsamples = 14\nvalue = [13, 1]"] ;
196 -> 197 ;
198 [label="gini = 0.0\nsamples = 5\nvalue = [5, 0]"] ;
197 -> 198 ;
199 [label="age <= 45.5\ngini = 0.198\nsamples = 9\nvalue = [8, 1]"] ;
197 -> 199 ;
200 [label="gini = 0.375\nsamples = 4\nvalue = [3, 1]"] ;
199 -> 200 ;
201 [label="gini = 0.0\nsamples = 5\nvalue = [5, 0]"] ;
199 -> 201 ;
202 [label="gini = 0.375\nsamples = 4\nvalue = [3, 1]"] ;
196 -> 202 ;
203 [label="age <= 49.5\ngini = 0.48\nsamples = 20\nvalue = [12, 8]"] ;
193 -> 203 ;
204 [label="age <= 48.5\ngini = 0.469\nsamples = 8\nvalue = [3, 5]"] ;
203 -> 204 ;
205 [label="gini = 0.5\nsamples = 2\nvalue = [1, 1]"] ;
204 -> 205 ;
206 [label="gini = 0.444\nsamples = 6\nvalue = [2, 4]"] ;
204 -> 206 ;
207 [label="age <= 53.0\ngini = 0.375\nsamples = 12\nvalue = [9, 3]"] ;
203 -> 207 ;
208 [label="gini = 0.0\nsamples = 3\nvalue = [3, 0]"] ;
207 -> 208 ;
209 [label="age <= 54.5\ngini = 0.444\nsamples = 9\nvalue = [6, 3]"] ;
207 -> 209 ;
210 [label="gini = 0.5\nsamples = 4\nvalue = [2, 2]"] ;
209 -> 210 ;
211 [label="age <= 55.5\ngini = 0.32\nsamples = 5\nvalue = [4, 1]"] ;
209 -> 211 ;
212 [label="gini = 0.0\nsamples = 3\nvalue = [3, 0]"] ;
211 -> 212 ;
213 [label="gini = 0.5\nsamples = 2\nvalue = [1, 1]"] ;
211 -> 213 ;
214 [label="gini = 0.0\nsamples = 16\nvalue = [16, 0]"] ;
156 -> 214 ;
}